digraph Tree {
node [shape=box] ;
0 [label="Price <= 94.5\ngini = 0.484\nsamples = 200\nvalue = [118, 82]"] ;
1 [label="Age <= 55.5\ngini = 0.349\nsamples = 40\nvalue = [9, 31]"] ;
0 -> 1 [labeldistance=2.5, labelangle=45, headlabel="True"] ;
2 [label="ShelveLoc <= 0.5\ngini = 0.159\nsamples = 23\nvalue = [2, 21]"] ;
1 -> 2 ;
3 [label="US <= 0.5\ngini = 0.444\nsamples = 6\nvalue = [2, 4]"] ;
2 -> 3 ;
4 [label="Price <= 89.5\ngini = 0.444\nsamples = 3\nvalue = [2, 1]"] ;
3 -> 4 ;
5 [label="gini = 0.0\nsamples = 2\nvalue = [2, 0]"] ;
4 -> 5 ;
6 [label="gini = 0.0\nsamples = 1\nvalue = [0, 1]"] ;
4 -> 6 ;
7 [label="gini = 0.0\nsamples = 3\nvalue = [0, 3]"] ;
3 -> 7 ;
8 [label="gini = 0.0\nsamples = 17\nvalue = [0, 17]"] ;
2 -> 8 ;
9 [label="Price <= 80.0\ngini = 0.484\nsamples = 17\nvalue = [7, 10]"] ;
1 -> 9 ;
10 [label="gini = 0.0\nsamples = 6\nvalue = [0, 6]"] ;
9 -> 10 ;
11 [label="CompPrice <= 112.0\ngini = 0.463\nsamples = 11\nvalue = [7, 4]"] ;
9 -> 11 ;
12 [label="gini = 0.0\nsamples = 6\nvalue = [6, 0]"] ;
11 -> 12 ;
13 [label="Education <= 17.5\ngini = 0.32\nsamples = 5\nvalue = [1, 4]"] ;
11 -> 13 ;
14 [label="gini = 0.0\nsamples = 4\nvalue = [0, 4]"] ;
13 -> 14 ;
15 [label="gini = 0.0\nsamples = 1\nvalue = [1, 0]"] ;
13 -> 15 ;
16 [label="Advertising <= 13.5\ngini = 0.434\nsamples = 160\nvalue = [109, 51]"] ;
0 -> 16 [labeldistance=2.5, labelangle=-45, headlabel="False"] ;
17 [label="CompPrice <= 126.5\ngini = 0.358\nsamples = 124\nvalue = [95, 29]"] ;
16 -> 17 ;
18 [label="Income <= 101.0\ngini = 0.168\nsamples = 54\nvalue = [49, 5]"] ;
17 -> 18 ;
19 [label="Education <= 15.5\ngini = 0.081\nsamples = 47\nvalue = [45, 2]"] ;
18 -> 19 ;
20 [label="gini = 0.0\nsamples = 34\nvalue = [34, 0]"] ;
19 -> 20 ;
21 [label="ShelveLoc <= 0.5\ngini = 0.26\nsamples = 13\nvalue = [11, 2]"] ;
19 -> 21 ;
22 [label="gini = 0.0\nsamples = 8\nvalue = [8, 0]"] ;
21 -> 22 ;
23 [label="gini = 0.48\nsamples = 5\nvalue = [3, 2]"] ;
21 -> 23 ;
24 [label="Income <= 108.0\ngini = 0.49\nsamples = 7\nvalue = [4, 3]"] ;
18 -> 24 ;
25 [label="Age <= 61.5\ngini = 0.375\nsamples = 4\nvalue = [1, 3]"] ;
24 -> 25 ;
26 [label="gini = 0.0\nsamples = 3\nvalue = [0, 3]"] ;
25 -> 26 ;
27 [label="gini = 0.0\nsamples = 1\nvalue = [1, 0]"] ;
25 -> 27 ;
28 [label="gini = 0.0\nsamples = 3\nvalue = [3, 0]"] ;
24 -> 28 ;
29 [label="Price <= 127.0\ngini = 0.451\nsamples = 70\nvalue = [46, 24]"] ;
17 -> 29 ;
30 [label="ShelveLoc <= 0.5\ngini = 0.485\nsamples = 29\nvalue = [12, 17]"] ;
29 -> 30 ;
31 [label="Advertising <= 9.0\ngini = 0.245\nsamples = 7\nvalue = [6, 1]"] ;
30 -> 31 ;
32 [label="gini = 0.0\nsamples = 6\nvalue = [6, 0]"] ;
31 -> 32 ;
33 [label="gini = 0.0\nsamples = 1\nvalue = [0, 1]"] ;
31 -> 33 ;
34 [label="Age <= 64.5\ngini = 0.397\nsamples = 22\nvalue = [6, 16]"] ;
30 -> 34 ;
35 [label="gini = 0.219\nsamples = 16\nvalue = [2, 14]"] ;
34 -> 35 ;
36 [label="gini = 0.444\nsamples = 6\nvalue = [4, 2]"] ;
34 -> 36 ;
37 [label="CompPrice <= 147.5\ngini = 0.283\nsamples = 41\nvalue = [34, 7]"] ;
29 -> 37 ;
38 [label="CompPrice <= 127.5\ngini = 0.117\nsamples = 32\nvalue = [30, 2]"] ;
37 -> 38 ;
39 [label="gini = 0.0\nsamples = 1\nvalue = [0, 1]"] ;
38 -> 39 ;
40 [label="gini = 0.062\nsamples = 31\nvalue = [30, 1]"] ;
38 -> 40 ;
41 [label="Price <= 149.0\ngini = 0.494\nsamples = 9\nvalue = [4, 5]"] ;
37 -> 41 ;
42 [label="gini = 0.0\nsamples = 5\nvalue = [0, 5]"] ;
41 -> 42 ;
43 [label="gini = 0.0\nsamples = 4\nvalue = [4, 0]"] ;
41 -> 43 ;
44 [label="Price <= 135.5\ngini = 0.475\nsamples = 36\nvalue = [14, 22]"] ;
16 -> 44 ;
45 [label="Income <= 51.5\ngini = 0.43\nsamples = 32\nvalue = [10, 22]"] ;
44 -> 45 ;
46 [label="Advertising <= 16.5\ngini = 0.444\nsamples = 9\nvalue = [6, 3]"] ;
45 -> 46 ;
47 [label="gini = 0.0\nsamples = 2\nvalue = [0, 2]"] ;
46 -> 47 ;
48 [label="Price <= 130.5\ngini = 0.245\nsamples = 7\nvalue = [6, 1]"] ;
46 -> 48 ;
49 [label="gini = 0.0\nsamples = 6\nvalue = [6, 0]"] ;
48 -> 49 ;
50 [label="gini = 0.0\nsamples = 1\nvalue = [0, 1]"] ;
48 -> 50 ;
51 [label="Advertising <= 15.5\ngini = 0.287\nsamples = 23\nvalue = [4, 19]"] ;
45 -> 51 ;
52 [label="Education <= 14.5\ngini = 0.463\nsamples = 11\nvalue = [4, 7]"] ;
51 -> 52 ;
53 [label="gini = 0.0\nsamples = 5\nvalue = [0, 5]"] ;
52 -> 53 ;
54 [label="gini = 0.444\nsamples = 6\nvalue = [4, 2]"] ;
52 -> 54 ;
55 [label="gini = 0.0\nsamples = 12\nvalue = [0, 12]"] ;
51 -> 55 ;
56 [label="gini = 0.0\nsamples = 4\nvalue = [4, 0]"] ;
44 -> 56 ;
}